network unknown {
}
variable age {
    type discrete [ 4 ] { 1.0, 2.0, 3.0, 4.0 };
}
variable ca {
    type discrete [ 4 ] { 0.0, 1.0, 2.0, 3.0 };
}
variable chol {
    type discrete [ 3 ] { 1.0, 2.0, 3.0 };
}
variable cp {
    type discrete [ 4 ] { 1.0, 2.0, 3.0, 4.0 };
}
variable exang {
    type discrete [ 2 ] { 0.0, 1.0 };
}
variable fbs {
    type discrete [ 2 ] { 0.0, 1.0 };
}
variable num {
    type discrete [ 2 ] { 0, 1 };
}
variable oldpeak {
    type discrete [ 3 ] { 1.0, 2.0, 3.0 };
}
variable restecg {
    type discrete [ 3 ] { 0.0, 1.0, 2.0 };
}
variable sex {
    type discrete [ 2 ] { 0.0, 1.0 };
}
variable slope {
    type discrete [ 3 ] { 1.0, 2.0, 3.0 };
}
variable thal {
    type discrete [ 3 ] { 3.0, 6.0, 7.0 };
}
variable thalach {
    type discrete [ 4 ] { 1.0, 2.0, 3.0, 4.0 };
}
variable trestbps {
    type discrete [ 5 ] { 1.0, 2.0, 3.0, 4.0, 5.0 };
}
probability ( age ) {
    table 0.06301652892561983, 0.253099173553719, 0.42665289256198347, 0.2572314049586777 ;
}
probability ( ca | num ) {
    ( 0 ) 0.7837078651685393, 0.13951310861423222, 0.04962546816479401, 0.027153558052434457;
    ( 1 ) 0.33755760368663595, 0.30069124423963134, 0.20852534562211983, 0.1532258064516129;

}
probability ( chol | age, sex ) {
    ( 1.0, 0.0 ) 0.4774774774774775, 0.4774774774774775, 0.04504504504504505;
    ( 1.0, 1.0 ) 0.396078431372549, 0.3019607843137255, 0.3019607843137255;
    ( 2.0, 0.0 ) 0.22595078299776286, 0.3333333333333333, 0.44071588366890385;
    ( 2.0, 1.0 ) 0.19257086999022485, 0.33333333333333337, 0.4740957966764418;
    ( 3.0, 0.0 ) 0.04715447154471544, 0.12520325203252033, 0.8276422764227642;
    ( 3.0, 1.0 ) 0.15727321524422974, 0.35050993022007515, 0.49221685453569514;
    ( 4.0, 0.0 ) 0.07454289732770746, 0.20956399437412096, 0.7158931082981715;
    ( 4.0, 1.0 ) 0.06768837803320563, 0.22094508301404853, 0.7113665389527458;

}
probability ( cp | exang ) {
    ( 0.0 ) 0.09285714285714286, 0.20714285714285716, 0.38492063492063494, 0.31507936507936507;
    ( 1.0 ) 0.05473372781065089, 0.05473372781065089, 0.13757396449704143, 0.7529585798816568;

}
probability ( exang | num ) {
    ( 0 ) 0.8333333333333334, 0.16666666666666666;
    ( 1 ) 0.42626728110599077, 0.5737327188940092;

}
probability ( fbs | age ) {
    ( 1.0 ) 0.9590163934426229, 0.040983606557377046;
    ( 2.0 ) 0.9081632653061225, 0.09183673469387756;
    ( 3.0 ) 0.8002421307506054, 0.19975786924939468;
    ( 4.0 ) 0.8132530120481928, 0.18674698795180722;

}
probability ( num | chol, trestbps ) {
    ( 1.0, 1.0 ) 0.5545454545454546, 0.44545454545454544;
    ( 1.0, 2.0 ) 0.78125, 0.21875;
    ( 1.0, 3.0 ) 0.5967741935483871, 0.40322580645161293;
    ( 1.0, 4.0 ) 0.5, 0.5;
    ( 1.0, 5.0 ) 0.5, 0.5;
    ( 2.0, 1.0 ) 0.5759493670886076, 0.4240506329113924;
    ( 2.0, 2.0 ) 0.8134328358208955, 0.18656716417910446;
    ( 2.0, 3.0 ) 0.6442307692307693, 0.35576923076923084;
    ( 2.0, 4.0 ) 0.65, 0.35000000000000003;
    ( 2.0, 5.0 ) 0.5, 0.5;
    ( 3.0, 1.0 ) 0.6747572815533981, 0.3252427184466019;
    ( 3.0, 2.0 ) 0.4426751592356688, 0.5573248407643312;
    ( 3.0, 3.0 ) 0.45212765957446804, 0.5478723404255319;
    ( 3.0, 4.0 ) 0.25675675675675674, 0.7432432432432433;
    ( 3.0, 5.0 ) 0.21875, 0.78125;

}
probability ( oldpeak | cp, restecg ) {
    ( 1.0, 0.0 ) 0.025641025641025644, 0.5794871794871795, 0.3948717948717949;
    ( 1.0, 1.0 ) 0.3333333333333333, 0.3333333333333333, 0.3333333333333333;
    ( 1.0, 2.0 ) 0.5320910973084886, 0.3084886128364389, 0.15942028985507245;
    ( 2.0, 0.0 ) 0.9454329774614472, 0.048635824436536176, 0.005931198102016607;
    ( 2.0, 1.0 ) 0.3333333333333333, 0.3333333333333333, 0.3333333333333333;
    ( 2.0, 2.0 ) 0.6066252587991718, 0.3830227743271222, 0.010351966873706004;
    ( 3.0, 0.0 ) 0.6631430584918957, 0.2572233967582805, 0.07963354474982383;
    ( 3.0, 1.0 ) 0.3333333333333333, 0.3333333333333333, 0.3333333333333333;
    ( 3.0, 2.0 ) 0.5904027420736931, 0.2819194515852613, 0.12767780634104542;
    ( 4.0, 0.0 ) 0.42405498281786935, 0.4487972508591065, 0.12714776632302405;
    ( 4.0, 1.0 ) 0.09803921568627452, 0.09803921568627452, 0.803921568627451;
    ( 4.0, 2.0 ) 0.5200311162971607, 0.15597043951769743, 0.323998444185142;

}
probability ( restecg | num ) {
    ( 0 ) 0.5380774032459426, 0.006242197253433209, 0.4556803995006242;
    ( 1 ) 0.3394777265745008, 0.016897081413210446, 0.6436251920122887;

}
probability ( sex ) {
    table 0.3243801652892562, 0.6756198347107438 ;
}
probability ( slope | restecg ) {
    ( 0.0 ) 0.5756646216768916, 0.3640081799591002, 0.060327198364008176;
    ( 1.0 ) 0.20833333333333331, 0.5833333333333333, 0.20833333333333331;
    ( 2.0 ) 0.3869047619047619, 0.5170068027210885, 0.09608843537414967;

}
probability ( thal ) {
    table 0.5482093663911846, 0.04820936639118457, 0.4035812672176309 ;
}
probability ( thalach | num ) {
    ( 0 ) 0.027153558052434457, 0.10955056179775281, 0.29681647940074907, 0.5664794007490637;
    ( 1 ) 0.2269585253456221, 0.24539170506912442, 0.30069124423963134, 0.2269585253456221;

}
probability ( trestbps | fbs, thal ) {
    ( 0.0, 3.0 ) 0.3846153846153846, 0.332365747460087, 0.2104499274310595, 0.05370101596516691, 0.018867924528301883;
    ( 0.0, 6.0 ) 0.24528301886792456, 0.24528301886792456, 0.3584905660377359, 0.13207547169811323, 0.01886792452830189;
    ( 0.0, 7.0 ) 0.34029227557411273, 0.290187891440501, 0.2776617954070981, 0.07724425887265135, 0.014613778705636743;
    ( 1.0, 3.0 ) 0.06542056074766354, 0.5700934579439251, 0.2897196261682243, 0.06542056074766354, 0.009345794392523362;
    ( 1.0, 6.0 ) 0.05882352941176471, 0.41176470588235303, 0.41176470588235303, 0.05882352941176471, 0.05882352941176471;
    ( 1.0, 7.0 ) 0.23364485981308414, 0.28971962616822433, 0.17757009345794392, 0.17757009345794392, 0.12149532710280374;

}
