network unknown {
}
variable age {
    type discrete [ 4 ] { 1.0, 2.0, 3.0, 4.0 };
    property weight = None ;
}
variable ca {
    type discrete [ 4 ] { 0.0, 1.0, 2.0, 3.0 };
    property weight = None ;
}
variable chol {
    type discrete [ 3 ] { 1.0, 2.0, 3.0 };
    property weight = None ;
}
variable cp {
    type discrete [ 4 ] { 1.0, 2.0, 3.0, 4.0 };
    property weight = None ;
}
variable exang {
    type discrete [ 2 ] { 0.0, 1.0 };
    property weight = None ;
}
variable fbs {
    type discrete [ 2 ] { 0.0, 1.0 };
    property weight = None ;
}
variable num {
    type discrete [ 2 ] { 0, 1 };
    property weight = None ;
}
variable oldpeak {
    type discrete [ 3 ] { 1.0, 2.0, 3.0 };
    property weight = None ;
}
variable restecg {
    type discrete [ 3 ] { 0.0, 1.0, 2.0 };
    property weight = None ;
}
variable sex {
    type discrete [ 2 ] { 0.0, 1.0 };
    property weight = None ;
}
variable slope {
    type discrete [ 3 ] { 1.0, 2.0, 3.0 };
    property weight = None ;
}
variable thal {
    type discrete [ 3 ] { 3.0, 6.0, 7.0 };
    property weight = None ;
}
variable thalach {
    type discrete [ 4 ] { 1.0, 2.0, 3.0, 4.0 };
    property weight = None ;
}
variable trestbps {
    type discrete [ 4 ] { 1.0, 2.0, 3.0, 4.0 };
    property weight = None ;
}
probability ( age | restecg ) {
    ( 0.0 ) 0.075, 0.35, 0.375, 0.2;
    ( 1.0 ) 0.0, 0.0, 0.6666666666666666, 0.3333333333333333;
    ( 2.0 ) 0.0, 0.058823529411764705, 0.4117647058823529, 0.5294117647058824;

}
probability ( ca | fbs ) {
    ( 0.0 ) 0.6037735849056604, 0.2641509433962264, 0.11320754716981132, 0.018867924528301886;
    ( 1.0 ) 0.2857142857142857, 0.14285714285714285, 0.5714285714285714, 0.0;

}
probability ( chol | age, sex, slope, thalach ) {
    ( 1.0, 0.0, 1.0, 1.0 ) 0.3333333333333333, 0.3333333333333333, 0.3333333333333333;
    ( 1.0, 0.0, 1.0, 2.0 ) 0.3333333333333333, 0.3333333333333333, 0.3333333333333333;
    ( 1.0, 0.0, 1.0, 3.0 ) 0.3333333333333333, 0.3333333333333333, 0.3333333333333333;
    ( 1.0, 0.0, 1.0, 4.0 ) 0.3333333333333333, 0.3333333333333333, 0.3333333333333333;
    ( 1.0, 0.0, 2.0, 1.0 ) 0.3333333333333333, 0.3333333333333333, 0.3333333333333333;
    ( 1.0, 0.0, 2.0, 2.0 ) 0.3333333333333333, 0.3333333333333333, 0.3333333333333333;
    ( 1.0, 0.0, 2.0, 3.0 ) 0.0, 1.0, 0.0;
    ( 1.0, 0.0, 2.0, 4.0 ) 0.3333333333333333, 0.3333333333333333, 0.3333333333333333;
    ( 1.0, 0.0, 3.0, 1.0 ) 0.3333333333333333, 0.3333333333333333, 0.3333333333333333;
    ( 1.0, 0.0, 3.0, 2.0 ) 0.3333333333333333, 0.3333333333333333, 0.3333333333333333;
    ( 1.0, 0.0, 3.0, 3.0 ) 0.3333333333333333, 0.3333333333333333, 0.3333333333333333;
    ( 1.0, 0.0, 3.0, 4.0 ) 0.3333333333333333, 0.3333333333333333, 0.3333333333333333;
    ( 1.0, 1.0, 1.0, 1.0 ) 0.3333333333333333, 0.3333333333333333, 0.3333333333333333;
    ( 1.0, 1.0, 1.0, 2.0 ) 0.3333333333333333, 0.3333333333333333, 0.3333333333333333;
    ( 1.0, 1.0, 1.0, 3.0 ) 0.3333333333333333, 0.3333333333333333, 0.3333333333333333;
    ( 1.0, 1.0, 1.0, 4.0 ) 0.5, 0.5, 0.0;
    ( 1.0, 1.0, 2.0, 1.0 ) 0.3333333333333333, 0.3333333333333333, 0.3333333333333333;
    ( 1.0, 1.0, 2.0, 2.0 ) 0.3333333333333333, 0.3333333333333333, 0.3333333333333333;
    ( 1.0, 1.0, 2.0, 3.0 ) 0.3333333333333333, 0.3333333333333333, 0.3333333333333333;
    ( 1.0, 1.0, 2.0, 4.0 ) 0.3333333333333333, 0.3333333333333333, 0.3333333333333333;
    ( 1.0, 1.0, 3.0, 1.0 ) 0.3333333333333333, 0.3333333333333333, 0.3333333333333333;
    ( 1.0, 1.0, 3.0, 2.0 ) 0.3333333333333333, 0.3333333333333333, 0.3333333333333333;
    ( 1.0, 1.0, 3.0, 3.0 ) 0.3333333333333333, 0.3333333333333333, 0.3333333333333333;
    ( 1.0, 1.0, 3.0, 4.0 ) 0.3333333333333333, 0.3333333333333333, 0.3333333333333333;
    ( 2.0, 0.0, 1.0, 1.0 ) 0.3333333333333333, 0.3333333333333333, 0.3333333333333333;
    ( 2.0, 0.0, 1.0, 2.0 ) 0.3333333333333333, 0.3333333333333333, 0.3333333333333333;
    ( 2.0, 0.0, 1.0, 3.0 ) 0.3333333333333333, 0.3333333333333333, 0.3333333333333333;
    ( 2.0, 0.0, 1.0, 4.0 ) 0.0, 0.0, 1.0;
    ( 2.0, 0.0, 2.0, 1.0 ) 0.3333333333333333, 0.3333333333333333, 0.3333333333333333;
    ( 2.0, 0.0, 2.0, 2.0 ) 0.3333333333333333, 0.3333333333333333, 0.3333333333333333;
    ( 2.0, 0.0, 2.0, 3.0 ) 0.0, 0.0, 1.0;
    ( 2.0, 0.0, 2.0, 4.0 ) 0.0, 1.0, 0.0;
    ( 2.0, 0.0, 3.0, 1.0 ) 0.3333333333333333, 0.3333333333333333, 0.3333333333333333;
    ( 2.0, 0.0, 3.0, 2.0 ) 0.3333333333333333, 0.3333333333333333, 0.3333333333333333;
    ( 2.0, 0.0, 3.0, 3.0 ) 0.3333333333333333, 0.3333333333333333, 0.3333333333333333;
    ( 2.0, 0.0, 3.0, 4.0 ) 0.3333333333333333, 0.3333333333333333, 0.3333333333333333;
    ( 2.0, 1.0, 1.0, 1.0 ) 0.3333333333333333, 0.3333333333333333, 0.3333333333333333;
    ( 2.0, 1.0, 1.0, 2.0 ) 0.3333333333333333, 0.3333333333333333, 0.3333333333333333;
    ( 2.0, 1.0, 1.0, 3.0 ) 0.5, 0.5, 0.0;
    ( 2.0, 1.0, 1.0, 4.0 ) 0.3333333333333333, 0.3333333333333333, 0.3333333333333333;
    ( 2.0, 1.0, 2.0, 1.0 ) 0.0, 0.0, 1.0;
    ( 2.0, 1.0, 2.0, 2.0 ) 0.0, 0.0, 1.0;
    ( 2.0, 1.0, 2.0, 3.0 ) 0.3333333333333333, 0.3333333333333333, 0.3333333333333333;
    ( 2.0, 1.0, 2.0, 4.0 ) 0.0, 0.0, 1.0;
    ( 2.0, 1.0, 3.0, 1.0 ) 0.3333333333333333, 0.3333333333333333, 0.3333333333333333;
    ( 2.0, 1.0, 3.0, 2.0 ) 0.3333333333333333, 0.3333333333333333, 0.3333333333333333;
    ( 2.0, 1.0, 3.0, 3.0 ) 1.0, 0.0, 0.0;
    ( 2.0, 1.0, 3.0, 4.0 ) 0.3333333333333333, 0.3333333333333333, 0.3333333333333333;
    ( 3.0, 0.0, 1.0, 1.0 ) 1.0, 0.0, 0.0;
    ( 3.0, 0.0, 1.0, 2.0 ) 0.3333333333333333, 0.3333333333333333, 0.3333333333333333;
    ( 3.0, 0.0, 1.0, 3.0 ) 0.0, 0.0, 1.0;
    ( 3.0, 0.0, 1.0, 4.0 ) 0.0, 0.0, 1.0;
    ( 3.0, 0.0, 2.0, 1.0 ) 0.3333333333333333, 0.3333333333333333, 0.3333333333333333;
    ( 3.0, 0.0, 2.0, 2.0 ) 0.3333333333333333, 0.3333333333333333, 0.3333333333333333;
    ( 3.0, 0.0, 2.0, 3.0 ) 0.0, 1.0, 0.0;
    ( 3.0, 0.0, 2.0, 4.0 ) 0.0, 1.0, 0.0;
    ( 3.0, 0.0, 3.0, 1.0 ) 0.3333333333333333, 0.3333333333333333, 0.3333333333333333;
    ( 3.0, 0.0, 3.0, 2.0 ) 0.3333333333333333, 0.3333333333333333, 0.3333333333333333;
    ( 3.0, 0.0, 3.0, 3.0 ) 0.3333333333333333, 0.3333333333333333, 0.3333333333333333;
    ( 3.0, 0.0, 3.0, 4.0 ) 0.3333333333333333, 0.3333333333333333, 0.3333333333333333;
    ( 3.0, 1.0, 1.0, 1.0 ) 0.3333333333333333, 0.3333333333333333, 0.3333333333333333;
    ( 3.0, 1.0, 1.0, 2.0 ) 0.3333333333333333, 0.3333333333333333, 0.3333333333333333;
    ( 3.0, 1.0, 1.0, 3.0 ) 0.0, 0.5, 0.5;
    ( 3.0, 1.0, 1.0, 4.0 ) 0.0, 1.0, 0.0;
    ( 3.0, 1.0, 2.0, 1.0 ) 0.6666666666666666, 0.3333333333333333, 0.0;
    ( 3.0, 1.0, 2.0, 2.0 ) 0.0, 1.0, 0.0;
    ( 3.0, 1.0, 2.0, 3.0 ) 0.0, 0.0, 1.0;
    ( 3.0, 1.0, 2.0, 4.0 ) 0.3333333333333333, 0.3333333333333333, 0.3333333333333333;
    ( 3.0, 1.0, 3.0, 1.0 ) 0.3333333333333333, 0.3333333333333333, 0.3333333333333333;
    ( 3.0, 1.0, 3.0, 2.0 ) 0.0, 0.0, 1.0;
    ( 3.0, 1.0, 3.0, 3.0 ) 0.3333333333333333, 0.3333333333333333, 0.3333333333333333;
    ( 3.0, 1.0, 3.0, 4.0 ) 0.0, 0.0, 1.0;
    ( 4.0, 0.0, 1.0, 1.0 ) 0.3333333333333333, 0.3333333333333333, 0.3333333333333333;
    ( 4.0, 0.0, 1.0, 2.0 ) 0.3333333333333333, 0.3333333333333333, 0.3333333333333333;
    ( 4.0, 0.0, 1.0, 3.0 ) 0.0, 1.0, 0.0;
    ( 4.0, 0.0, 1.0, 4.0 ) 0.3333333333333333, 0.3333333333333333, 0.3333333333333333;
    ( 4.0, 0.0, 2.0, 1.0 ) 1.0, 0.0, 0.0;
    ( 4.0, 0.0, 2.0, 2.0 ) 1.0, 0.0, 0.0;
    ( 4.0, 0.0, 2.0, 3.0 ) 0.0, 0.0, 1.0;
    ( 4.0, 0.0, 2.0, 4.0 ) 0.3333333333333333, 0.3333333333333333, 0.3333333333333333;
    ( 4.0, 0.0, 3.0, 1.0 ) 0.3333333333333333, 0.3333333333333333, 0.3333333333333333;
    ( 4.0, 0.0, 3.0, 2.0 ) 0.3333333333333333, 0.3333333333333333, 0.3333333333333333;
    ( 4.0, 0.0, 3.0, 3.0 ) 0.3333333333333333, 0.3333333333333333, 0.3333333333333333;
    ( 4.0, 0.0, 3.0, 4.0 ) 0.3333333333333333, 0.3333333333333333, 0.3333333333333333;
    ( 4.0, 1.0, 1.0, 1.0 ) 0.3333333333333333, 0.3333333333333333, 0.3333333333333333;
    ( 4.0, 1.0, 1.0, 2.0 ) 0.0, 1.0, 0.0;
    ( 4.0, 1.0, 1.0, 3.0 ) 0.5, 0.0, 0.5;
    ( 4.0, 1.0, 1.0, 4.0 ) 0.0, 1.0, 0.0;
    ( 4.0, 1.0, 2.0, 1.0 ) 0.0, 0.5, 0.5;
    ( 4.0, 1.0, 2.0, 2.0 ) 1.0, 0.0, 0.0;
    ( 4.0, 1.0, 2.0, 3.0 ) 0.25, 0.75, 0.0;
    ( 4.0, 1.0, 2.0, 4.0 ) 0.3333333333333333, 0.3333333333333333, 0.3333333333333333;
    ( 4.0, 1.0, 3.0, 1.0 ) 0.3333333333333333, 0.3333333333333333, 0.3333333333333333;
    ( 4.0, 1.0, 3.0, 2.0 ) 0.3333333333333333, 0.3333333333333333, 0.3333333333333333;
    ( 4.0, 1.0, 3.0, 3.0 ) 0.3333333333333333, 0.3333333333333333, 0.3333333333333333;
    ( 4.0, 1.0, 3.0, 4.0 ) 0.3333333333333333, 0.3333333333333333, 0.3333333333333333;

}
probability ( cp | exang ) {
    ( 0.0 ) 0.1111111111111111, 0.28888888888888886, 0.26666666666666666, 0.3333333333333333;
    ( 1.0 ) 0.0, 0.0, 0.0, 1.0;

}
probability ( exang | num ) {
    ( 0 ) 0.9310344827586207, 0.06896551724137931;
    ( 1 ) 0.5806451612903226, 0.41935483870967744;

}
probability ( fbs ) {
    table 0.8833333333333333, 0.11666666666666667 ;
}
probability ( num | ca ) {
    ( 0.0 ) 0.7352941176470589, 0.2647058823529412;
    ( 1.0 ) 0.2, 0.8;
    ( 2.0 ) 0.1, 0.9;
    ( 3.0 ) 0.0, 1.0;

}
probability ( oldpeak | exang, thal ) {
    ( 0.0, 3.0 ) 0.8333333333333334, 0.13333333333333333, 0.03333333333333333;
    ( 0.0, 6.0 ) 0.25, 0.0, 0.75;
    ( 0.0, 7.0 ) 0.7272727272727273, 0.18181818181818182, 0.09090909090909091;
    ( 1.0, 3.0 ) 0.6666666666666666, 0.0, 0.3333333333333333;
    ( 1.0, 6.0 ) 0.0, 0.5, 0.5;
    ( 1.0, 7.0 ) 0.25, 0.5, 0.25;

}
probability ( restecg ) {
    table 0.6666666666666666, 0.05, 0.2833333333333333 ;
}
probability ( sex | thal ) {
    ( 3.0 ) 0.5151515151515151, 0.48484848484848486;
    ( 6.0 ) 0.125, 0.875;
    ( 7.0 ) 0.10526315789473684, 0.8947368421052632;

}
probability ( slope | oldpeak ) {
    ( 1.0 ) 0.6052631578947368, 0.3684210526315789, 0.02631578947368421;
    ( 2.0 ) 0.16666666666666666, 0.8333333333333334, 0.0;
    ( 3.0 ) 0.2, 0.6, 0.2;

}
probability ( thal | exang, fbs, num, restecg ) {
    ( 0.0, 0.0, 0, 0.0 ) 1.0, 0.0, 0.0;
    ( 0.0, 0.0, 0, 1.0 ) 1.0, 0.0, 0.0;
    ( 0.0, 0.0, 0, 2.0 ) 0.5, 0.16666666666666666, 0.3333333333333333;
    ( 0.0, 0.0, 1, 0.0 ) 0.3, 0.0, 0.7;
    ( 0.0, 0.0, 1, 1.0 ) 0.0, 1.0, 0.0;
    ( 0.0, 0.0, 1, 2.0 ) 0.6666666666666666, 0.0, 0.3333333333333333;
    ( 0.0, 1.0, 0, 0.0 ) 1.0, 0.0, 0.0;
    ( 0.0, 1.0, 0, 1.0 ) 0.3333333333333333, 0.3333333333333333, 0.3333333333333333;
    ( 0.0, 1.0, 0, 2.0 ) 1.0, 0.0, 0.0;
    ( 0.0, 1.0, 1, 0.0 ) 0.0, 0.5, 0.5;
    ( 0.0, 1.0, 1, 1.0 ) 0.3333333333333333, 0.3333333333333333, 0.3333333333333333;
    ( 0.0, 1.0, 1, 2.0 ) 0.5, 0.5, 0.0;
    ( 1.0, 0.0, 0, 0.0 ) 0.0, 0.5, 0.5;
    ( 1.0, 0.0, 0, 1.0 ) 0.3333333333333333, 0.3333333333333333, 0.3333333333333333;
    ( 1.0, 0.0, 0, 2.0 ) 0.3333333333333333, 0.3333333333333333, 0.3333333333333333;
    ( 1.0, 0.0, 1, 0.0 ) 0.14285714285714285, 0.2857142857142857, 0.5714285714285714;
    ( 1.0, 0.0, 1, 1.0 ) 0.0, 0.0, 1.0;
    ( 1.0, 0.0, 1, 2.0 ) 0.5, 0.0, 0.5;
    ( 1.0, 1.0, 0, 0.0 ) 0.3333333333333333, 0.3333333333333333, 0.3333333333333333;
    ( 1.0, 1.0, 0, 1.0 ) 0.3333333333333333, 0.3333333333333333, 0.3333333333333333;
    ( 1.0, 1.0, 0, 2.0 ) 0.3333333333333333, 0.3333333333333333, 0.3333333333333333;
    ( 1.0, 1.0, 1, 0.0 ) 0.3333333333333333, 0.3333333333333333, 0.3333333333333333;
    ( 1.0, 1.0, 1, 1.0 ) 0.3333333333333333, 0.3333333333333333, 0.3333333333333333;
    ( 1.0, 1.0, 1, 2.0 ) 0.0, 1.0, 0.0;

}
probability ( thalach | exang, fbs, oldpeak ) {
    ( 0.0, 0.0, 1.0 ) 0.03333333333333333, 0.03333333333333333, 0.4, 0.5333333333333333;
    ( 0.0, 0.0, 2.0 ) 0.3333333333333333, 0.3333333333333333, 0.0, 0.3333333333333333;
    ( 0.0, 0.0, 3.0 ) 0.0, 0.6666666666666666, 0.3333333333333333, 0.0;
    ( 0.0, 1.0, 1.0 ) 0.5, 0.25, 0.25, 0.0;
    ( 0.0, 1.0, 2.0 ) 0.25, 0.25, 0.25, 0.25;
    ( 0.0, 1.0, 3.0 ) 0.0, 0.5, 0.5, 0.0;
    ( 1.0, 0.0, 1.0 ) 0.5, 0.5, 0.0, 0.0;
    ( 1.0, 0.0, 2.0 ) 0.3333333333333333, 0.6666666666666666, 0.0, 0.0;
    ( 1.0, 0.0, 3.0 ) 0.0, 0.25, 0.75, 0.0;
    ( 1.0, 1.0, 1.0 ) 0.25, 0.25, 0.25, 0.25;
    ( 1.0, 1.0, 2.0 ) 0.25, 0.25, 0.25, 0.25;
    ( 1.0, 1.0, 3.0 ) 0.0, 0.0, 1.0, 0.0;

}
probability ( trestbps | restecg, thal ) {
    ( 0.0, 3.0 ) 0.4782608695652174, 0.4782608695652174, 0.043478260869565216, 0.0;
    ( 0.0, 6.0 ) 0.5, 0.5, 0.0, 0.0;
    ( 0.0, 7.0 ) 0.23076923076923078, 0.3076923076923077, 0.46153846153846156, 0.0;
    ( 1.0, 3.0 ) 0.0, 0.0, 1.0, 0.0;
    ( 1.0, 6.0 ) 1.0, 0.0, 0.0, 0.0;
    ( 1.0, 7.0 ) 0.0, 1.0, 0.0, 0.0;
    ( 2.0, 3.0 ) 0.2222222222222222, 0.4444444444444444, 0.3333333333333333, 0.0;
    ( 2.0, 6.0 ) 0.0, 0.0, 0.0, 1.0;
    ( 2.0, 7.0 ) 0.0, 0.2, 0.6, 0.2;

}
